#pragma once
#include <cstdarg>
namespace Eloquent {
    namespace ML {
        namespace Port {
            class RandomForestRegressor {
                public:
                    /**
                    * Predict class for features vector
                    */
                    float predict(float *x) {
                        float y_pred = 0;
                        // tree #1
                        if (x[3] <= 49.71356964111328) {
                            if (x[2] <= 57.1026554107666) {
                                if (x[4] <= -70.85055541992188) {
                                    if (x[2] <= 34.36103439331055) {
                                        if (x[3] <= 35.33625411987305) {
                                            y_pred += 70.54774273197347;
                                        }

                                        else {
                                            y_pred += 62.509339490371794;
                                        }
                                    }

                                    else {
                                        if (x[3] <= 26.659160614013672) {
                                            y_pred += 63.94941780467597;
                                        }

                                        else {
                                            y_pred += 56.828402854117996;
                                        }
                                    }
                                }

                                else {
                                    if (x[4] <= -49.565629959106445) {
                                        if (x[3] <= 33.61294364929199) {
                                            y_pred += 76.11655480739789;
                                        }

                                        else {
                                            y_pred += 68.93710055983095;
                                        }
                                    }

                                    else {
                                        if (x[2] <= 24.300660133361816) {
                                            y_pred += 85.56931041483075;
                                        }

                                        else {
                                            y_pred += 77.8203577739998;
                                        }
                                    }
                                }
                            }

                            else {
                                if (x[4] <= -68.42487716674805) {
                                    if (x[3] <= 23.589423179626465) {
                                        if (x[4] <= -84.73049545288086) {
                                            y_pred += 53.303665328701165;
                                        }

                                        else {
                                            y_pred += 59.70211381500514;
                                        }
                                    }

                                    else {
                                        if (x[4] <= -85.06094360351562) {
                                            y_pred += 46.0193745284513;
                                        }

                                        else {
                                            y_pred += 52.9532765569416;
                                        }
                                    }
                                }

                                else {
                                    if (x[4] <= -45.617252349853516) {
                                        if (x[2] <= 79.78579711914062) {
                                            y_pred += 65.47072259583246;
                                        }

                                        else {
                                            y_pred += 59.02871342045251;
                                        }
                                    }

                                    else {
                                        if (x[3] <= 26.366777420043945) {
                                            y_pred += 72.19125275342914;
                                        }

                                        else {
                                            y_pred += 65.82085778232903;
                                        }
                                    }
                                }
                            }
                        }

                        else {
                            if (x[2] <= 63.78134536743164) {
                                if (x[4] <= -57.130388259887695) {
                                    if (x[2] <= 37.70200538635254) {
                                        if (x[4] <= -77.5118293762207) {
                                            y_pred += 53.734390970017415;
                                        }

                                        else {
                                            y_pred += 61.28187222622906;
                                        }
                                    }

                                    else {
                                        if (x[3] <= 73.44872665405273) {
                                            y_pred += 54.358957762046074;
                                        }

                                        else {
                                            y_pred += 46.24505296137046;
                                        }
                                    }
                                }

                                else {
                                    if (x[2] <= 36.7046012878418) {
                                        if (x[3] <= 83.9732551574707) {
                                            y_pred += 71.89445448663892;
                                        }

                                        else {
                                            y_pred += 64.5243314375392;
                                        }
                                    }

                                    else {
                                        if (x[3] <= 91.27253341674805) {
                                            y_pred += 62.274194502323084;
                                        }

                                        else {
                                            y_pred += 56.24390975929704;
                                        }
                                    }
                                }
                            }

                            else {
                                if (x[4] <= -72.79734802246094) {
                                    if (x[3] <= 72.28680419921875) {
                                        if (x[4] <= -93.42733383178711) {
                                            y_pred += 37.41049714591176;
                                        }

                                        else {
                                            y_pred += 43.837165638612916;
                                        }
                                    }

                                    else {
                                        if (x[4] <= -90.1974868774414) {
                                            y_pred += 32.24989140728725;
                                        }

                                        else {
                                            y_pred += 36.95001322348692;
                                        }
                                    }
                                }

                                else {
                                    if (x[4] <= -42.46475410461426) {
                                        if (x[3] <= 71.78111267089844) {
                                            y_pred += 51.78965609756971;
                                        }

                                        else {
                                            y_pred += 45.443791416800536;
                                        }
                                    }

                                    else {
                                        if (x[3] <= 72.61394882202148) {
                                            y_pred += 59.86835776090005;
                                        }

                                        else {
                                            y_pred += 54.167287148124245;
                                        }
                                    }
                                }
                            }
                        }

                        // tree #2
                        if (x[3] <= 50.027814865112305) {
                            if (x[4] <= -61.24200439453125) {
                                if (x[2] <= 38.51021957397461) {
                                    if (x[4] <= -86.42829132080078) {
                                        if (x[3] <= 18.32512855529785) {
                                            y_pred += 68.1737849915975;
                                        }

                                        else {
                                            y_pred += 61.4442734120356;
                                        }
                                    }

                                    else {
                                        if (x[3] <= 18.15293598175049) {
                                            y_pred += 75.0497039047574;
                                        }

                                        else {
                                            y_pred += 69.28570957424914;
                                        }
                                    }
                                }

                                else {
                                    if (x[2] <= 74.53236389160156) {
                                        if (x[3] <= 23.688817977905273) {
                                            y_pred += 63.07175980224731;
                                        }

                                        else {
                                            y_pred += 56.85720967171937;
                                        }
                                    }

                                    else {
                                        if (x[4] <= -86.89937591552734) {
                                            y_pred += 46.598945063167164;
                                        }

                                        else {
                                            y_pred += 54.66970890837681;
                                        }
                                    }
                                }
                            }

                            else {
                                if (x[2] <= 59.56521987915039) {
                                    if (x[2] <= 22.301637649536133) {
                                        if (x[4] <= -38.793474197387695) {
                                            y_pred += 81.33828724170407;
                                        }

                                        else {
                                            y_pred += 88.78007472460592;
                                        }
                                    }

                                    else {
                                        if (x[3] <= 14.01072359085083) {
                                            y_pred += 79.31705991179734;
                                        }

                                        else {
                                            y_pred += 74.80513518185502;
                                        }
                                    }
                                }

                                else {
                                    if (x[3] <= 29.046283721923828) {
                                        if (x[4] <= -40.12656593322754) {
                                            y_pred += 66.4464186320596;
                                        }

                                        else {
                                            y_pred += 73.27872951743518;
                                        }
                                    }

                                    else {
                                        if (x[4] <= -51.80511665344238) {
                                            y_pred += 56.67094673349966;
                                        }

                                        else {
                                            y_pred += 63.503918623003756;
                                        }
                                    }
                                }
                            }
                        }

                        else {
                            if (x[2] <= 65.33749389648438) {
                                if (x[4] <= -71.56499481201172) {
                                    if (x[2] <= 21.10971736907959) {
                                        if (x[3] <= 70.77353286743164) {
                                            y_pred += 60.210939618391826;
                                        }

                                        else {
                                            y_pred += 54.727078688400624;
                                        }
                                    }

                                    else {
                                        if (x[3] <= 79.45408630371094) {
                                            y_pred += 52.02511777018521;
                                        }

                                        else {
                                            y_pred += 45.56533151780829;
                                        }
                                    }
                                }

                                else {
                                    if (x[2] <= 36.72515296936035) {
                                        if (x[4] <= -60.163015365600586) {
                                            y_pred += 61.80687444980598;
                                        }

                                        else {
                                            y_pred += 70.12721979991646;
                                        }
                                    }

                                    else {
                                        if (x[4] <= -49.27481269836426) {
                                            y_pred += 55.79770800978824;
                                        }

                                        else {
                                            y_pred += 62.306544218914986;
                                        }
                                    }
                                }
                            }

                            else {
                                if (x[4] <= -68.0680160522461) {
                                    if (x[4] <= -79.16931533813477) {
                                        if (x[3] <= 88.72847366333008) {
                                            y_pred += 37.80411369429665;
                                        }

                                        else {
                                            y_pred += 32.12233257647255;
                                        }
                                    }

                                    else {
                                        if (x[3] <= 90.22704315185547) {
                                            y_pred += 43.70228220772003;
                                        }

                                        else {
                                            y_pred += 37.48369476453662;
                                        }
                                    }
                                }

                                else {
                                    if (x[3] <= 88.18881225585938) {
                                        if (x[4] <= -52.15821075439453) {
                                            y_pred += 49.92369579361351;
                                        }

                                        else {
                                            y_pred += 55.4784788575868;
                                        }
                                    }

                                    else {
                                        if (x[4] <= -58.285221099853516) {
                                            y_pred += 41.82754668522082;
                                        }

                                        else {
                                            y_pred += 48.20334762580277;
                                        }
                                    }
                                }
                            }
                        }

                        // tree #3
                        if (x[2] <= 51.24378967285156) {
                            if (x[4] <= -59.02873420715332) {
                                if (x[3] <= 51.66828727722168) {
                                    if (x[4] <= -87.45514297485352) {
                                        if (x[3] <= 29.582481384277344) {
                                            y_pred += 65.04267381873515;
                                        }

                                        else {
                                            y_pred += 59.5351546076987;
                                        }
                                    }

                                    else {
                                        if (x[2] <= 26.951422691345215) {
                                            y_pred += 73.55136860807292;
                                        }

                                        else {
                                            y_pred += 65.66677796553846;
                                        }
                                    }
                                }

                                else {
                                    if (x[4] <= -73.66429901123047) {
                                        if (x[3] <= 75.02579879760742) {
                                            y_pred += 56.43017529127067;
                                        }

                                        else {
                                            y_pred += 50.372276594610085;
                                        }
                                    }

                                    else {
                                        if (x[2] <= 32.47745609283447) {
                                            y_pred += 62.028599986349924;
                                        }

                                        else {
                                            y_pred += 55.15908358348341;
                                        }
                                    }
                                }
                            }

                            else {
                                if (x[3] <= 58.29990196228027) {
                                    if (x[3] <= 23.03264808654785) {
                                        if (x[2] <= 24.537656784057617) {
                                            y_pred += 86.07391923471606;
                                        }

                                        else {
                                            y_pred += 79.76191160769187;
                                        }
                                    }

                                    else {
                                        if (x[2] <= 44.36838150024414) {
                                            y_pred += 77.53447693459046;
                                        }

                                        else {
                                            y_pred += 70.07710018827045;
                                        }
                                    }
                                }

                                else {
                                    if (x[2] <= 28.72920799255371) {
                                        if (x[4] <= -33.9820499420166) {
                                            y_pred += 68.95788452324592;
                                        }

                                        else {
                                            y_pred += 76.80196535938512;
                                        }
                                    }

                                    else {
                                        if (x[4] <= -49.592201232910156) {
                                            y_pred += 57.567783108458386;
                                        }

                                        else {
                                            y_pred += 64.77540610421856;
                                        }
                                    }
                                }
                            }
                        }

                        else {
                            if (x[3] <= 50.02515411376953) {
                                if (x[4] <= -68.47745513916016) {
                                    if (x[2] <= 74.68879318237305) {
                                        if (x[3] <= 25.43912124633789) {
                                            y_pred += 60.221350893072646;
                                        }

                                        else {
                                            y_pred += 54.575545699005936;
                                        }
                                    }

                                    else {
                                        if (x[3] <= 25.367002487182617) {
                                            y_pred += 54.20193078900378;
                                        }

                                        else {
                                            y_pred += 46.95889621910437;
                                        }
                                    }
                                }

                                else {
                                    if (x[2] <= 80.65382385253906) {
                                        if (x[4] <= -40.35333251953125) {
                                            y_pred += 66.42542679436438;
                                        }

                                        else {
                                            y_pred += 74.04945973637626;
                                        }
                                    }

                                    else {
                                        if (x[3] <= 14.920099258422852) {
                                            y_pred += 66.19720421146508;
                                        }

                                        else {
                                            y_pred += 60.3664026133469;
                                        }
                                    }
                                }
                            }

                            else {
                                if (x[4] <= -54.20823097229004) {
                                    if (x[2] <= 72.3781852722168) {
                                        if (x[4] <= -82.11237335205078) {
                                            y_pred += 43.44262829291353;
                                        }

                                        else {
                                            y_pred += 49.56483657417532;
                                        }
                                    }

                                    else {
                                        if (x[4] <= -86.60353469848633) {
                                            y_pred += 34.53344127839672;
                                        }

                                        else {
                                            y_pred += 42.47065252963631;
                                        }
                                    }
                                }

                                else {
                                    if (x[2] <= 72.8470458984375) {
                                        if (x[3] <= 78.4528579711914) {
                                            y_pred += 61.75247072301259;
                                        }

                                        else {
                                            y_pred += 55.74781741679151;
                                        }
                                    }

                                    else {
                                        if (x[3] <= 74.72478866577148) {
                                            y_pred += 55.99610169057969;
                                        }

                                        else {
                                            y_pred += 48.901559014097266;
                                        }
                                    }
                                }
                            }
                        }

                        // tree #4
                        if (x[4] <= -60.79528999328613) {
                            if (x[3] <= 49.63885307312012) {
                                if (x[2] <= 52.076345443725586) {
                                    if (x[4] <= -80.38772964477539) {
                                        if (x[3] <= 12.738082885742188) {
                                            y_pred += 68.87334565852493;
                                        }

                                        else {
                                            y_pred += 62.04137981341052;
                                        }
                                    }

                                    else {
                                        if (x[2] <= 36.63235664367676) {
                                            y_pred += 73.98645495233329;
                                        }

                                        else {
                                            y_pred += 66.44711417131174;
                                        }
                                    }
                                }

                                else {
                                    if (x[4] <= -77.29401397705078) {
                                        if (x[2] <= 79.86043930053711) {
                                            y_pred += 54.48374470455381;
                                        }

                                        else {
                                            y_pred += 47.72183521002815;
                                        }
                                    }

                                    else {
                                        if (x[2] <= 80.48987197875977) {
                                            y_pred += 61.80566600097686;
                                        }

                                        else {
                                            y_pred += 55.713733675797435;
                                        }
                                    }
                                }
                            }

                            else {
                                if (x[2] <= 54.77864456176758) {
                                    if (x[4] <= -82.37701416015625) {
                                        if (x[3] <= 79.00944519042969) {
                                            y_pred += 54.85438542484846;
                                        }

                                        else {
                                            y_pred += 46.77366917125857;
                                        }
                                    }

                                    else {
                                        if (x[2] <= 32.430877685546875) {
                                            y_pred += 60.76963634390526;
                                        }

                                        else {
                                            y_pred += 54.47720514035292;
                                        }
                                    }
                                }

                                else {
                                    if (x[4] <= -80.32388305664062) {
                                        if (x[2] <= 77.09152221679688) {
                                            y_pred += 41.13124735017912;
                                        }

                                        else {
                                            y_pred += 34.83125568326505;
                                        }
                                    }

                                    else {
                                        if (x[2] <= 74.19291687011719) {
                                            y_pred += 48.41437197585947;
                                        }

                                        else {
                                            y_pred += 43.357141665938435;
                                        }
                                    }
                                }
                            }
                        }

                        else {
                            if (x[2] <= 59.35358238220215) {
                                if (x[3] <= 47.885765075683594) {
                                    if (x[2] <= 27.99894428253174) {
                                        if (x[3] <= 24.914681434631348) {
                                            y_pred += 86.6211701128793;
                                        }

                                        else {
                                            y_pred += 80.03707725606158;
                                        }
                                    }

                                    else {
                                        if (x[3] <= 27.894700050354004) {
                                            y_pred += 78.24027485968845;
                                        }

                                        else {
                                            y_pred += 72.62769034343658;
                                        }
                                    }
                                }

                                else {
                                    if (x[2] <= 38.40624237060547) {
                                        if (x[3] <= 77.48074722290039) {
                                            y_pred += 71.98935976567189;
                                        }

                                        else {
                                            y_pred += 65.95602205002133;
                                        }
                                    }

                                    else {
                                        if (x[3] <= 91.20759201049805) {
                                            y_pred += 63.16620304287727;
                                        }

                                        else {
                                            y_pred += 54.233181121089814;
                                        }
                                    }
                                }
                            }

                            else {
                                if (x[3] <= 48.83420372009277) {
                                    if (x[2] <= 86.37406921386719) {
                                        if (x[4] <= -38.091020584106445) {
                                            y_pred += 66.99900794880672;
                                        }

                                        else {
                                            y_pred += 73.20526978161172;
                                        }
                                    }

                                    else {
                                        if (x[3] <= 21.624481201171875) {
                                            y_pred += 65.86153859958651;
                                        }

                                        else {
                                            y_pred += 60.64137620295158;
                                        }
                                    }
                                }

                                else {
                                    if (x[3] <= 73.2921371459961) {
                                        if (x[2] <= 79.99891662597656) {
                                            y_pred += 60.38628955338628;
                                        }

                                        else {
                                            y_pred += 54.71094022476177;
                                        }
                                    }

                                    else {
                                        if (x[4] <= -41.82547378540039) {
                                            y_pred += 48.963095447227055;
                                        }

                                        else {
                                            y_pred += 54.307587653432655;
                                        }
                                    }
                                }
                            }
                        }

                        // tree #5
                        if (x[3] <= 47.81044387817383) {
                            if (x[4] <= -69.7142562866211) {
                                if (x[2] <= 39.56330108642578) {
                                    if (x[3] <= 25.489075660705566) {
                                        if (x[2] <= 12.919201850891113) {
                                            y_pred += 72.45106464301881;
                                        }

                                        else {
                                            y_pred += 67.5259755002645;
                                        }
                                    }

                                    else {
                                        if (x[4] <= -80.05392456054688) {
                                            y_pred += 61.3983693086829;
                                        }

                                        else {
                                            y_pred += 66.36229323960235;
                                        }
                                    }
                                }

                                else {
                                    if (x[2] <= 78.99460983276367) {
                                        if (x[3] <= 18.616183280944824) {
                                            y_pred += 62.17394129200566;
                                        }

                                        else {
                                            y_pred += 56.02226634276073;
                                        }
                                    }

                                    else {
                                        if (x[4] <= -92.30417251586914) {
                                            y_pred += 43.509647238058626;
                                        }

                                        else {
                                            y_pred += 52.71208091918919;
                                        }
                                    }
                                }
                            }

                            else {
                                if (x[2] <= 57.02520942687988) {
                                    if (x[2] <= 16.819833755493164) {
                                        if (x[4] <= -49.899126052856445) {
                                            y_pred += 79.4966002379201;
                                        }

                                        else {
                                            y_pred += 86.68492444247782;
                                        }
                                    }

                                    else {
                                        if (x[3] <= 18.532257080078125) {
                                            y_pred += 79.1770304275979;
                                        }

                                        else {
                                            y_pred += 74.06606046603402;
                                        }
                                    }
                                }

                                else {
                                    if (x[3] <= 15.85605239868164) {
                                        if (x[4] <= -45.0666389465332) {
                                            y_pred += 67.22117992552684;
                                        }

                                        else {
                                            y_pred += 74.33697416505024;
                                        }
                                    }

                                    else {
                                        if (x[4] <= -51.59050941467285) {
                                            y_pred += 59.45524808716003;
                                        }

                                        else {
                                            y_pred += 65.39071303351172;
                                        }
                                    }
                                }
                            }
                        }

                        else {
                            if (x[2] <= 43.77409362792969) {
                                if (x[4] <= -61.97113227844238) {
                                    if (x[4] <= -78.01093292236328) {
                                        if (x[3] <= 68.22651290893555) {
                                            y_pred += 57.04485185048362;
                                        }

                                        else {
                                            y_pred += 50.06639408192965;
                                        }
                                    }

                                    else {
                                        if (x[3] <= 66.89973068237305) {
                                            y_pred += 64.7683411686189;
                                        }

                                        else {
                                            y_pred += 58.45147563406476;
                                        }
                                    }
                                }

                                else {
                                    if (x[3] <= 67.66261672973633) {
                                        if (x[4] <= -45.28865432739258) {
                                            y_pred += 69.19290871741582;
                                        }

                                        else {
                                            y_pred += 75.43100304061342;
                                        }
                                    }

                                    else {
                                        if (x[2] <= 17.77194118499756) {
                                            y_pred += 69.86044040706057;
                                        }

                                        else {
                                            y_pred += 63.54861526667675;
                                        }
                                    }
                                }
                            }

                            else {
                                if (x[4] <= -54.48987007141113) {
                                    if (x[2] <= 71.36010360717773) {
                                        if (x[4] <= -81.90461730957031) {
                                            y_pred += 44.110869779319216;
                                        }

                                        else {
                                            y_pred += 52.309790286378984;
                                        }
                                    }

                                    else {
                                        if (x[4] <= -74.37762451171875) {
                                            y_pred += 38.578186158679365;
                                        }

                                        else {
                                            y_pred += 45.00839156498552;
                                        }
                                    }
                                }

                                else {
                                    if (x[2] <= 78.24072647094727) {
                                        if (x[3] <= 79.0025405883789) {
                                            y_pred += 61.67244913079405;
                                        }

                                        else {
                                            y_pred += 56.783239655820225;
                                        }
                                    }

                                    else {
                                        if (x[3] <= 90.3836441040039) {
                                            y_pred += 54.42342574434619;
                                        }

                                        else {
                                            y_pred += 45.96939864098254;
                                        }
                                    }
                                }
                            }
                        }

                        // tree #6
                        if (x[2] <= 54.599863052368164) {
                            if (x[3] <= 33.53328514099121) {
                                if (x[4] <= -73.01499938964844) {
                                    if (x[2] <= 26.366080284118652) {
                                        if (x[3] <= 15.296430110931396) {
                                            y_pred += 72.69829849009923;
                                        }

                                        else {
                                            y_pred += 67.83895621497116;
                                        }
                                    }

                                    else {
                                        if (x[4] <= -85.68354034423828) {
                                            y_pred += 61.67087581299949;
                                        }

                                        else {
                                            y_pred += 66.5853056805675;
                                        }
                                    }
                                }

                                else {
                                    if (x[2] <= 30.029935836791992) {
                                        if (x[4] <= -48.73043632507324) {
                                            y_pred += 79.87120812820801;
                                        }

                                        else {
                                            y_pred += 86.37155316396846;
                                        }
                                    }

                                    else {
                                        if (x[4] <= -42.37954139709473) {
                                            y_pred += 74.81360238662182;
                                        }

                                        else {
                                            y_pred += 79.5780824669426;
                                        }
                                    }
                                }
                            }

                            else {
                                if (x[4] <= -57.130388259887695) {
                                    if (x[3] <= 69.31894302368164) {
                                        if (x[4] <= -75.07735443115234) {
                                            y_pred += 58.22374226019982;
                                        }

                                        else {
                                            y_pred += 65.38557262256512;
                                        }
                                    }

                                    else {
                                        if (x[4] <= -81.45345687866211) {
                                            y_pred += 48.6036658566125;
                                        }

                                        else {
                                            y_pred += 55.77456197397989;
                                        }
                                    }
                                }

                                else {
                                    if (x[3] <= 65.58620834350586) {
                                        if (x[2] <= 26.33967876434326) {
                                            y_pred += 76.96118496574758;
                                        }

                                        else {
                                            y_pred += 70.73070828234532;
                                        }
                                    }

                                    else {
                                        if (x[2] <= 18.77894878387451) {
                                            y_pred += 71.01348190722719;
                                        }

                                        else {
                                            y_pred += 63.358805385368754;
                                        }
                                    }
                                }
                            }
                        }

                        else {
                            if (x[3] <= 50.85054016113281) {
                                if (x[4] <= -68.42487716674805) {
                                    if (x[3] <= 24.69767475128174) {
                                        if (x[2] <= 82.11734008789062) {
                                            y_pred += 59.863339286972604;
                                        }

                                        else {
                                            y_pred += 54.10902015253841;
                                        }
                                    }

                                    else {
                                        if (x[4] <= -83.77106094360352) {
                                            y_pred += 46.82675094693154;
                                        }

                                        else {
                                            y_pred += 52.15806372213907;
                                        }
                                    }
                                }

                                else {
                                    if (x[4] <= -43.31021308898926) {
                                        if (x[2] <= 91.49467468261719) {
                                            y_pred += 63.173159647756144;
                                        }

                                        else {
                                            y_pred += 57.917158745053655;
                                        }
                                    }

                                    else {
                                        if (x[3] <= 34.84836196899414) {
                                            y_pred += 71.40994409585927;
                                        }

                                        else {
                                            y_pred += 63.5551810032282;
                                        }
                                    }
                                }
                            }

                            else {
                                if (x[4] <= -55.00649642944336) {
                                    if (x[4] <= -79.16931533813477) {
                                        if (x[2] <= 81.62639617919922) {
                                            y_pred += 41.13441708615206;
                                        }

                                        else {
                                            y_pred += 35.07268764439162;
                                        }
                                    }

                                    else {
                                        if (x[2] <= 90.24703979492188) {
                                            y_pred += 47.8826126027915;
                                        }

                                        else {
                                            y_pred += 42.236515301508014;
                                        }
                                    }
                                }

                                else {
                                    if (x[2] <= 72.46532821655273) {
                                        if (x[3] <= 83.04055404663086) {
                                            y_pred += 61.700961442935764;
                                        }

                                        else {
                                            y_pred += 55.967462971981654;
                                        }
                                    }

                                    else {
                                        if (x[3] <= 90.3836441040039) {
                                            y_pred += 54.42781338951087;
                                        }

                                        else {
                                            y_pred += 47.59087654144527;
                                        }
                                    }
                                }
                            }
                        }

                        // tree #7
                        if (x[4] <= -60.79528999328613) {
                            if (x[3] <= 55.15730667114258) {
                                if (x[2] <= 39.086395263671875) {
                                    if (x[3] <= 16.03907346725464) {
                                        if (x[4] <= -82.21224594116211) {
                                            y_pred += 70.08891791746292;
                                        }

                                        else {
                                            y_pred += 76.90563761248923;
                                        }
                                    }

                                    else {
                                        if (x[4] <= -77.07864379882812) {
                                            y_pred += 62.93646826825829;
                                        }

                                        else {
                                            y_pred += 70.15143311197984;
                                        }
                                    }
                                }

                                else {
                                    if (x[3] <= 19.520280838012695) {
                                        if (x[4] <= -70.95511245727539) {
                                            y_pred += 59.16805763242606;
                                        }

                                        else {
                                            y_pred += 66.53788597780667;
                                        }
                                    }

                                    else {
                                        if (x[4] <= -84.10272216796875) {
                                            y_pred += 48.849326047971054;
                                        }

                                        else {
                                            y_pred += 55.74963869088281;
                                        }
                                    }
                                }
                            }

                            else {
                                if (x[2] <= 51.67788505554199) {
                                    if (x[4] <= -80.88571166992188) {
                                        if (x[2] <= 21.158855438232422) {
                                            y_pred += 54.40093317892241;
                                        }

                                        else {
                                            y_pred += 48.56433928090533;
                                        }
                                    }

                                    else {
                                        if (x[2] <= 31.15774154663086) {
                                            y_pred += 60.26862039646077;
                                        }

                                        else {
                                            y_pred += 53.84141476469276;
                                        }
                                    }
                                }

                                else {
                                    if (x[4] <= -80.32388305664062) {
                                        if (x[2] <= 63.90161895751953) {
                                            y_pred += 42.99433691692514;
                                        }

                                        else {
                                            y_pred += 35.38278670173088;
                                        }
                                    }

                                    else {
                                        if (x[2] <= 84.51874542236328) {
                                            y_pred += 47.66591924584077;
                                        }

                                        else {
                                            y_pred += 40.364364644860615;
                                        }
                                    }
                                }
                            }
                        }

                        else {
                            if (x[2] <= 53.51240921020508) {
                                if (x[3] <= 58.11629867553711) {
                                    if (x[2] <= 26.608078002929688) {
                                        if (x[3] <= 27.300715446472168) {
                                            y_pred += 85.46035140681609;
                                        }

                                        else {
                                            y_pred += 78.52705658710772;
                                        }
                                    }

                                    else {
                                        if (x[3] <= 25.848732948303223) {
                                            y_pred += 78.22157152042489;
                                        }

                                        else {
                                            y_pred += 71.73037134428624;
                                        }
                                    }
                                }

                                else {
                                    if (x[2] <= 38.07618522644043) {
                                        if (x[3] <= 76.66952514648438) {
                                            y_pred += 71.28609202819587;
                                        }

                                        else {
                                            y_pred += 66.89769589801946;
                                        }
                                    }

                                    else {
                                        if (x[4] <= -52.214393615722656) {
                                            y_pred += 55.691699687208526;
                                        }

                                        else {
                                            y_pred += 64.66013650744786;
                                        }
                                    }
                                }
                            }

                            else {
                                if (x[3] <= 53.71351623535156) {
                                    if (x[2] <= 81.45489120483398) {
                                        if (x[3] <= 41.45015907287598) {
                                            y_pred += 71.58992363032598;
                                        }

                                        else {
                                            y_pred += 64.35405444906657;
                                        }
                                    }

                                    else {
                                        if (x[3] <= 12.997313022613525) {
                                            y_pred += 67.60770199443375;
                                        }

                                        else {
                                            y_pred += 60.782644296398814;
                                        }
                                    }
                                }

                                else {
                                    if (x[2] <= 69.42333221435547) {
                                        if (x[3] <= 80.51478576660156) {
                                            y_pred += 59.671803049642804;
                                        }

                                        else {
                                            y_pred += 54.34884665063414;
                                        }
                                    }

                                    else {
                                        if (x[3] <= 85.4802360534668) {
                                            y_pred += 53.77699511385679;
                                        }

                                        else {
                                            y_pred += 48.22667770868768;
                                        }
                                    }
                                }
                            }
                        }

                        // tree #8
                        if (x[3] <= 56.411834716796875) {
                            if (x[4] <= -61.24200439453125) {
                                if (x[2] <= 38.18254280090332) {
                                    if (x[3] <= 25.489075660705566) {
                                        if (x[4] <= -80.53519439697266) {
                                            y_pred += 69.29263913043401;
                                        }

                                        else {
                                            y_pred += 75.4873576818035;
                                        }
                                    }

                                    else {
                                        if (x[4] <= -79.71883392333984) {
                                            y_pred += 60.848682270678616;
                                        }

                                        else {
                                            y_pred += 67.89726372323501;
                                        }
                                    }
                                }

                                else {
                                    if (x[3] <= 27.460100173950195) {
                                        if (x[4] <= -69.36631774902344) {
                                            y_pred += 57.942506008254774;
                                        }

                                        else {
                                            y_pred += 65.00038373392778;
                                        }
                                    }

                                    else {
                                        if (x[2] <= 75.03806686401367) {
                                            y_pred += 55.27840434359012;
                                        }

                                        else {
                                            y_pred += 48.677843724308474;
                                        }
                                    }
                                }
                            }

                            else {
                                if (x[2] <= 57.295724868774414) {
                                    if (x[2] <= 25.734734535217285) {
                                        if (x[3] <= 31.472463607788086) {
                                            y_pred += 85.20506115249965;
                                        }

                                        else {
                                            y_pred += 77.70519859651905;
                                        }
                                    }

                                    else {
                                        if (x[4] <= -45.397417068481445) {
                                            y_pred += 72.49544755685233;
                                        }

                                        else {
                                            y_pred += 77.83162508052115;
                                        }
                                    }
                                }

                                else {
                                    if (x[3] <= 21.624481201171875) {
                                        if (x[2] <= 64.57296371459961) {
                                            y_pred += 76.31729238819194;
                                        }

                                        else {
                                            y_pred += 68.78207428934209;
                                        }
                                    }

                                    else {
                                        if (x[2] <= 79.19627380371094) {
                                            y_pred += 66.39796391334446;
                                        }

                                        else {
                                            y_pred += 59.82333007551542;
                                        }
                                    }
                                }
                            }
                        }

                        else {
                            if (x[2] <= 71.7323226928711) {
                                if (x[4] <= -61.694387435913086) {
                                    if (x[2] <= 21.10971736907959) {
                                        if (x[4] <= -82.32288360595703) {
                                            y_pred += 53.80706968650009;
                                        }

                                        else {
                                            y_pred += 61.16287893514236;
                                        }
                                    }

                                    else {
                                        if (x[4] <= -81.70426177978516) {
                                            y_pred += 46.11317805883184;
                                        }

                                        else {
                                            y_pred += 52.35520877317018;
                                        }
                                    }
                                }

                                else {
                                    if (x[2] <= 44.90145683288574) {
                                        if (x[4] <= -38.580833435058594) {
                                            y_pred += 64.68203886145672;
                                        }

                                        else {
                                            y_pred += 70.27456026236528;
                                        }
                                    }

                                    else {
                                        if (x[3] <= 75.30522918701172) {
                                            y_pred += 60.567641835436056;
                                        }

                                        else {
                                            y_pred += 55.02605585582733;
                                        }
                                    }
                                }
                            }

                            else {
                                if (x[4] <= -73.30463790893555) {
                                    if (x[4] <= -87.51836013793945) {
                                        if (x[3] <= 77.9285774230957) {
                                            y_pred += 36.29098000603487;
                                        }

                                        else {
                                            y_pred += 31.20971963333261;
                                        }
                                    }

                                    else {
                                        if (x[3] <= 64.98319244384766) {
                                            y_pred += 44.051969010793854;
                                        }

                                        else {
                                            y_pred += 37.35944998961025;
                                        }
                                    }
                                }

                                else {
                                    if (x[4] <= -58.40638542175293) {
                                        if (x[3] <= 68.5706558227539) {
                                            y_pred += 46.93972885580627;
                                        }

                                        else {
                                            y_pred += 42.60009610787547;
                                        }
                                    }

                                    else {
                                        if (x[4] <= -43.13419151306152) {
                                            y_pred += 48.94826857871561;
                                        }

                                        else {
                                            y_pred += 53.589136644184;
                                        }
                                    }
                                }
                            }
                        }

                        // tree #9
                        if (x[3] <= 47.5707893371582) {
                            if (x[2] <= 57.1026554107666) {
                                if (x[4] <= -68.21752166748047) {
                                    if (x[2] <= 17.44540500640869) {
                                        if (x[4] <= -86.49616622924805) {
                                            y_pred += 66.5045391343951;
                                        }

                                        else {
                                            y_pred += 73.75569062174131;
                                        }
                                    }

                                    else {
                                        if (x[4] <= -90.97789001464844) {
                                            y_pred += 58.2072348986543;
                                        }

                                        else {
                                            y_pred += 64.30809132689507;
                                        }
                                    }
                                }

                                else {
                                    if (x[2] <= 20.047592163085938) {
                                        if (x[4] <= -49.39230537414551) {
                                            y_pred += 79.6612010169136;
                                        }

                                        else {
                                            y_pred += 86.02899329565172;
                                        }
                                    }

                                    else {
                                        if (x[4] <= -45.09170913696289) {
                                            y_pred += 72.9700629056613;
                                        }

                                        else {
                                            y_pred += 78.97036286405172;
                                        }
                                    }
                                }
                            }

                            else {
                                if (x[4] <= -68.64226531982422) {
                                    if (x[3] <= 20.48137855529785) {
                                        if (x[4] <= -86.06045150756836) {
                                            y_pred += 54.62883122439193;
                                        }

                                        else {
                                            y_pred += 59.273288554300706;
                                        }
                                    }

                                    else {
                                        if (x[4] <= -92.7031478881836) {
                                            y_pred += 45.153337330892285;
                                        }

                                        else {
                                            y_pred += 52.09731429718818;
                                        }
                                    }
                                }

                                else {
                                    if (x[4] <= -43.34318161010742) {
                                        if (x[2] <= 79.87092590332031) {
                                            y_pred += 65.65641133629886;
                                        }

                                        else {
                                            y_pred += 59.571170884563614;
                                        }
                                    }

                                    else {
                                        if (x[3] <= 33.367319107055664) {
                                            y_pred += 71.86797093029065;
                                        }

                                        else {
                                            y_pred += 64.08218247071461;
                                        }
                                    }
                                }
                            }
                        }

                        else {
                            if (x[2] <= 60.18739128112793) {
                                if (x[4] <= -62.69215393066406) {
                                    if (x[2] <= 20.1730899810791) {
                                        if (x[4] <= -77.42564392089844) {
                                            y_pred += 56.121113577542374;
                                        }

                                        else {
                                            y_pred += 63.10372319789178;
                                        }
                                    }

                                    else {
                                        if (x[4] <= -75.52552032470703) {
                                            y_pred += 49.192647517577996;
                                        }

                                        else {
                                            y_pred += 55.72842944913458;
                                        }
                                    }
                                }

                                else {
                                    if (x[2] <= 29.054855346679688) {
                                        if (x[3] <= 60.774139404296875) {
                                            y_pred += 75.25105314229677;
                                        }

                                        else {
                                            y_pred += 68.40586559755623;
                                        }
                                    }

                                    else {
                                        if (x[3] <= 66.5906867980957) {
                                            y_pred += 66.86258422734056;
                                        }

                                        else {
                                            y_pred += 59.97512582353495;
                                        }
                                    }
                                }
                            }

                            else {
                                if (x[4] <= -71.94820404052734) {
                                    if (x[3] <= 65.21922302246094) {
                                        if (x[4] <= -93.6505126953125) {
                                            y_pred += 37.715787417786125;
                                        }

                                        else {
                                            y_pred += 46.82753605077505;
                                        }
                                    }

                                    else {
                                        if (x[2] <= 65.31171798706055) {
                                            y_pred += 45.79625726941705;
                                        }

                                        else {
                                            y_pred += 36.45106871237795;
                                        }
                                    }
                                }

                                else {
                                    if (x[3] <= 72.68306732177734) {
                                        if (x[4] <= -47.60136604309082) {
                                            y_pred += 52.58709163859075;
                                        }

                                        else {
                                            y_pred += 59.415383217054156;
                                        }
                                    }

                                    else {
                                        if (x[4] <= -43.23923873901367) {
                                            y_pred += 46.10166746477008;
                                        }

                                        else {
                                            y_pred += 53.15640275392073;
                                        }
                                    }
                                }
                            }
                        }

                        // tree #10
                        if (x[3] <= 49.10639190673828) {
                            if (x[2] <= 50.36766242980957) {
                                if (x[4] <= -70.71346282958984) {
                                    if (x[3] <= 25.716718673706055) {
                                        if (x[2] <= 26.234134674072266) {
                                            y_pred += 71.98221825840048;
                                        }

                                        else {
                                            y_pred += 64.24448897532417;
                                        }
                                    }

                                    else {
                                        if (x[2] <= 23.256277084350586) {
                                            y_pred += 64.22784188502689;
                                        }

                                        else {
                                            y_pred += 59.348560481228674;
                                        }
                                    }
                                }

                                else {
                                    if (x[2] <= 32.243865966796875) {
                                        if (x[4] <= -38.72208213806152) {
                                            y_pred += 78.6654947945085;
                                        }

                                        else {
                                            y_pred += 86.2994656624755;
                                        }
                                    }

                                    else {
                                        if (x[4] <= -47.94942092895508) {
                                            y_pred += 71.01735476151723;
                                        }

                                        else {
                                            y_pred += 77.57584088371532;
                                        }
                                    }
                                }
                            }

                            else {
                                if (x[4] <= -61.43049621582031) {
                                    if (x[3] <= 28.67583656311035) {
                                        if (x[4] <= -81.0964126586914) {
                                            y_pred += 54.68523352110564;
                                        }

                                        else {
                                            y_pred += 61.58801736339989;
                                        }
                                    }

                                    else {
                                        if (x[4] <= -88.02013778686523) {
                                            y_pred += 46.24542800971098;
                                        }

                                        else {
                                            y_pred += 53.18539532126254;
                                        }
                                    }
                                }

                                else {
                                    if (x[4] <= -39.164268493652344) {
                                        if (x[2] <= 79.76239013671875) {
                                            y_pred += 67.6315002072643;
                                        }

                                        else {
                                            y_pred += 61.30680221178311;
                                        }
                                    }

                                    else {
                                        if (x[3] <= 24.952699661254883) {
                                            y_pred += 75.00315235320318;
                                        }

                                        else {
                                            y_pred += 69.002188758475;
                                        }
                                    }
                                }
                            }
                        }

                        else {
                            if (x[2] <= 43.84237480163574) {
                                if (x[4] <= -73.767333984375) {
                                    if (x[3] <= 89.54919052124023) {
                                        if (x[2] <= 21.10971736907959) {
                                            y_pred += 57.561978407105556;
                                        }

                                        else {
                                            y_pred += 52.695144543832505;
                                        }
                                    }

                                    else {
                                        if (x[2] <= 17.987717628479004) {
                                            y_pred += 50.407241530920146;
                                        }

                                        else {
                                            y_pred += 45.00349168806792;
                                        }
                                    }
                                }

                                else {
                                    if (x[3] <= 66.56249618530273) {
                                        if (x[4] <= -46.1921443939209) {
                                            y_pred += 67.99287567391322;
                                        }

                                        else {
                                            y_pred += 75.19117322789677;
                                        }
                                    }

                                    else {
                                        if (x[4] <= -59.932952880859375) {
                                            y_pred += 58.96635256130487;
                                        }

                                        else {
                                            y_pred += 66.198217888653;
                                        }
                                    }
                                }
                            }

                            else {
                                if (x[4] <= -64.83879089355469) {
                                    if (x[2] <= 73.97134017944336) {
                                        if (x[3] <= 73.32908630371094) {
                                            y_pred += 50.62060436168704;
                                        }

                                        else {
                                            y_pred += 43.014199493561236;
                                        }
                                    }

                                    else {
                                        if (x[4] <= -78.43034362792969) {
                                            y_pred += 36.57946086299724;
                                        }

                                        else {
                                            y_pred += 42.206747329261134;
                                        }
                                    }
                                }

                                else {
                                    if (x[2] <= 69.38772583007812) {
                                        if (x[3] <= 89.04742431640625) {
                                            y_pred += 59.202571886737495;
                                        }

                                        else {
                                            y_pred += 51.929895037579975;
                                        }
                                    }

                                    else {
                                        if (x[4] <= -43.704965591430664) {
                                            y_pred += 47.37589874354227;
                                        }

                                        else {
                                            y_pred += 54.8634213325984;
                                        }
                                    }
                                }
                            }
                        }

                        return y_pred / 10;
                    }

                protected:
                };
            }
        }
    }